digraph Tree {
node [shape=box] ;
0 [label="X[1] <= 0.5\ngini = 0.035\nsamples = 549\nvalue = [[541, 8]\n[530, 19]\n[546, 3]]"] ;
1 [label="X[5] <= 0.5\ngini = 0.044\nsamples = 293\nvalue = [[285, 8]\n[281, 12]\n[293, 0]]"] ;
0 -> 1 [labeldistance=2.5, labelangle=45, headlabel="True"] ;
2 [label="X[3] <= 0.5\ngini = 0.06\nsamples = 149\nvalue = [[142, 7]\n[142, 7]\n[149, 0]]"] ;
1 -> 2 ;
3 [label="X[9] <= 0.5\ngini = 0.087\nsamples = 85\nvalue = [[78, 7]\n[80, 5]\n[85, 0]]"] ;
2 -> 3 ;
4 [label="X[0] <= 0.5\ngini = 0.11\nsamples = 43\nvalue = [[37, 6]\n[41, 2]\n[43, 0]]"] ;
3 -> 4 ;
5 [label="X[7] <= 0.5\ngini = 0.088\nsamples = 32\nvalue = [[27, 5]\n[32, 0]\n[32, 0]]"] ;
4 -> 5 ;
6 [label="X[2] <= 0.5\ngini = 0.073\nsamples = 16\nvalue = [[14, 2]\n[16, 0]\n[16, 0]]"] ;
5 -> 6 ;
7 [label="gini = 0.0\nsamples = 8\nvalue = [[8, 0]\n[8, 0]\n[8, 0]]"] ;
6 -> 7 ;
8 [label="X[6] <= 0.5\ngini = 0.125\nsamples = 8\nvalue = [[6, 2]\n[8, 0]\n[8, 0]]"] ;
6 -> 8 ;
9 [label="X[8] <= 0.5\ngini = 0.167\nsamples = 4\nvalue = [[2, 2]\n[4, 0]\n[4, 0]]"] ;
8 -> 9 ;
10 [label="X[4] <= 0.5\ngini = 0.167\nsamples = 2\nvalue = [[1, 1]\n[2, 0]\n[2, 0]]"] ;
9 -> 10 ;
11 [label="gini = 0.0\nsamples = 1\nvalue = [[0, 1]\n[1, 0]\n[1, 0]]"] ;
10 -> 11 ;
12 [label="gini = 0.0\nsamples = 1\nvalue = [[1, 0]\n[1, 0]\n[1, 0]]"] ;
10 -> 12 ;
13 [label="X[4] <= 0.5\ngini = 0.167\nsamples = 2\nvalue = [[1, 1]\n[2, 0]\n[2, 0]]"] ;
9 -> 13 ;
14 [label="gini = 0.0\nsamples = 1\nvalue = [[1, 0]\n[1, 0]\n[1, 0]]"] ;
13 -> 14 ;
15 [label="gini = 0.0\nsamples = 1\nvalue = [[0, 1]\n[1, 0]\n[1, 0]]"] ;
13 -> 15 ;
16 [label="gini = 0.0\nsamples = 4\nvalue = [[4, 0]\n[4, 0]\n[4, 0]]"] ;
8 -> 16 ;
17 [label="X[4] <= 0.5\ngini = 0.102\nsamples = 16\nvalue = [[13, 3]\n[16, 0]\n[16, 0]]"] ;
5 -> 17 ;
18 [label="X[6] <= 0.5\ngini = 0.125\nsamples = 8\nvalue = [[6, 2]\n[8, 0]\n[8, 0]]"] ;
17 -> 18 ;
19 [label="gini = 0.0\nsamples = 4\nvalue = [[4, 0]\n[4, 0]\n[4, 0]]"] ;
18 -> 19 ;
20 [label="X[2] <= 0.5\ngini = 0.167\nsamples = 4\nvalue = [[2, 2]\n[4, 0]\n[4, 0]]"] ;
18 -> 20 ;
21 [label="gini = 0.0\nsamples = 2\nvalue = [[0, 2]\n[2, 0]\n[2, 0]]"] ;
20 -> 21 ;
22 [label="gini = 0.0\nsamples = 2\nvalue = [[2, 0]\n[2, 0]\n[2, 0]]"] ;
20 -> 22 ;
23 [label="X[2] <= 0.5\ngini = 0.073\nsamples = 8\nvalue = [[7, 1]\n[8, 0]\n[8, 0]]"] ;
17 -> 23 ;
24 [label="gini = 0.0\nsamples = 4\nvalue = [[4, 0]\n[4, 0]\n[4, 0]]"] ;
23 -> 24 ;
25 [label="X[6] <= 0.5\ngini = 0.125\nsamples = 4\nvalue = [[3, 1]\n[4, 0]\n[4, 0]]"] ;
23 -> 25 ;
26 [label="X[8] <= 0.5\ngini = 0.167\nsamples = 2\nvalue = [[1, 1]\n[2, 0]\n[2, 0]]"] ;
25 -> 26 ;
27 [label="gini = 0.0\nsamples = 1\nvalue = [[0, 1]\n[1, 0]\n[1, 0]]"] ;
26 -> 27 ;
28 [label="gini = 0.0\nsamples = 1\nvalue = [[1, 0]\n[1, 0]\n[1, 0]]"] ;
26 -> 28 ;
29 [label="gini = 0.0\nsamples = 2\nvalue = [[2, 0]\n[2, 0]\n[2, 0]]"] ;
25 -> 29 ;
30 [label="X[4] <= 0.5\ngini = 0.154\nsamples = 11\nvalue = [[10, 1]\n[9, 2]\n[11, 0]]"] ;
4 -> 30 ;
31 [label="X[8] <= 0.5\ngini = 0.125\nsamples = 8\nvalue = [[8, 0]\n[6, 2]\n[8, 0]]"] ;
30 -> 31 ;
32 [label="X[6] <= 0.5\ngini = 0.167\nsamples = 4\nvalue = [[4, 0]\n[2, 2]\n[4, 0]]"] ;
31 -> 32 ;
33 [label="X[7] <= 0.5\ngini = 0.167\nsamples = 2\nvalue = [[2, 0]\n[1, 1]\n[2, 0]]"] ;
32 -> 33 ;
34 [label="gini = 0.0\nsamples = 1\nvalue = [[1, 0]\n[0, 1]\n[1, 0]]"] ;
33 -> 34 ;
35 [label="gini = 0.0\nsamples = 1\nvalue = [[1, 0]\n[1, 0]\n[1, 0]]"] ;
33 -> 35 ;
36 [label="X[7] <= 0.5\ngini = 0.167\nsamples = 2\nvalue = [[2, 0]\n[1, 1]\n[2, 0]]"] ;
32 -> 36 ;
37 [label="gini = 0.0\nsamples = 1\nvalue = [[1, 0]\n[1, 0]\n[1, 0]]"] ;
36 -> 37 ;
38 [label="gini = 0.0\nsamples = 1\nvalue = [[1, 0]\n[0, 1]\n[1, 0]]"] ;
36 -> 38 ;
39 [label="gini = 0.0\nsamples = 4\nvalue = [[4, 0]\n[4, 0]\n[4, 0]]"] ;
31 -> 39 ;
40 [label="X[7] <= 0.5\ngini = 0.148\nsamples = 3\nvalue = [[2, 1]\n[3, 0]\n[3, 0]]"] ;
30 -> 40 ;
41 [label="X[8] <= 0.5\ngini = 0.167\nsamples = 2\nvalue = [[1, 1]\n[2, 0]\n[2, 0]]"] ;
40 -> 41 ;
42 [label="gini = 0.0\nsamples = 1\nvalue = [[0, 1]\n[1, 0]\n[1, 0]]"] ;
41 -> 42 ;
43 [label="gini = 0.0\nsamples = 1\nvalue = [[1, 0]\n[1, 0]\n[1, 0]]"] ;
41 -> 43 ;
44 [label="gini = 0.0\nsamples = 1\nvalue = [[1, 0]\n[1, 0]\n[1, 0]]"] ;
40 -> 44 ;
45 [label="X[7] <= 0.5\ngini = 0.06\nsamples = 42\nvalue = [[41, 1]\n[39, 3]\n[42, 0]]"] ;
3 -> 45 ;
46 [label="X[6] <= 0.5\ngini = 0.079\nsamples = 22\nvalue = [[22, 0]\n[19, 3]\n[22, 0]]"] ;
45 -> 46 ;
47 [label="X[2] <= 0.5\ngini = 0.051\nsamples = 12\nvalue = [[12, 0]\n[11, 1]\n[12, 0]]"] ;
46 -> 47 ;
48 [label="gini = 0.0\nsamples = 8\nvalue = [[8, 0]\n[8, 0]\n[8, 0]]"] ;
47 -> 48 ;
49 [label="X[8] <= 0.5\ngini = 0.125\nsamples = 4\nvalue = [[4, 0]\n[3, 1]\n[4, 0]]"] ;
47 -> 49 ;
50 [label="gini = 0.0\nsamples = 2\nvalue = [[2, 0]\n[2, 0]\n[2, 0]]"] ;
49 -> 50 ;
51 [label="X[4] <= 0.5\ngini = 0.167\nsamples = 2\nvalue = [[2, 0]\n[1, 1]\n[2, 0]]"] ;
49 -> 51 ;
52 [label="gini = 0.0\nsamples = 1\nvalue = [[1, 0]\n[1, 0]\n[1, 0]]"] ;
51 -> 52 ;
53 [label="gini = 0.0\nsamples = 1\nvalue = [[1, 0]\n[0, 1]\n[1, 0]]"] ;
51 -> 53 ;
54 [label="X[2] <= 0.5\ngini = 0.107\nsamples = 10\nvalue = [[10, 0]\n[8, 2]\n[10, 0]]"] ;
46 -> 54 ;
55 [label="X[4] <= 0.5\ngini = 0.148\nsamples = 6\nvalue = [[6, 0]\n[4, 2]\n[6, 0]]"] ;
54 -> 55 ;
56 [label="X[8] <= 0.5\ngini = 0.167\nsamples = 4\nvalue = [[4, 0]\n[2, 2]\n[4, 0]]"] ;
55 -> 56 ;
57 [label="X[0] <= 0.5\ngini = 0.167\nsamples = 2\nvalue = [[2, 0]\n[1, 1]\n[2, 0]]"] ;
56 -> 57 ;
58 [label="gini = 0.0\nsamples = 1\nvalue = [[1, 0]\n[1, 0]\n[1, 0]]"] ;
57 -> 58 ;
59 [label="gini = 0.0\nsamples = 1\nvalue = [[1, 0]\n[0, 1]\n[1, 0]]"] ;
57 -> 59 ;
60 [label="X[0] <= 0.5\ngini = 0.167\nsamples = 2\nvalue = [[2, 0]\n[1, 1]\n[2, 0]]"] ;
56 -> 60 ;
61 [label="gini = 0.0\nsamples = 1\nvalue = [[1, 0]\n[0, 1]\n[1, 0]]"] ;
60 -> 61 ;
62 [label="gini = 0.0\nsamples = 1\nvalue = [[1, 0]\n[1, 0]\n[1, 0]]"] ;
60 -> 62 ;
63 [label="gini = 0.0\nsamples = 2\nvalue = [[2, 0]\n[2, 0]\n[2, 0]]"] ;
55 -> 63 ;
64 [label="gini = 0.0\nsamples = 4\nvalue = [[4, 0]\n[4, 0]\n[4, 0]]"] ;
54 -> 64 ;
65 [label="X[6] <= 0.5\ngini = 0.032\nsamples = 20\nvalue = [[19, 1]\n[20, 0]\n[20, 0]]"] ;
45 -> 65 ;
66 [label="gini = 0.0\nsamples = 10\nvalue = [[10, 0]\n[10, 0]\n[10, 0]]"] ;
65 -> 66 ;
67 [label="X[8] <= 0.5\ngini = 0.06\nsamples = 10\nvalue = [[9, 1]\n[10, 0]\n[10, 0]]"] ;
65 -> 67 ;
68 [label="X[2] <= 0.5\ngini = 0.107\nsamples = 5\nvalue = [[4, 1]\n[5, 0]\n[5, 0]]"] ;
67 -> 68 ;
69 [label="X[0] <= 0.5\ngini = 0.148\nsamples = 3\nvalue = [[2, 1]\n[3, 0]\n[3, 0]]"] ;
68 -> 69 ;
70 [label="X[4] <= 0.5\ngini = 0.167\nsamples = 2\nvalue = [[1, 1]\n[2, 0]\n[2, 0]]"] ;
69 -> 70 ;
71 [label="gini = 0.0\nsamples = 1\nvalue = [[0, 1]\n[1, 0]\n[1, 0]]"] ;
70 -> 71 ;
72 [label="gini = 0.0\nsamples = 1\nvalue = [[1, 0]\n[1, 0]\n[1, 0]]"] ;
70 -> 72 ;
73 [label="gini = 0.0\nsamples = 1\nvalue = [[1, 0]\n[1, 0]\n[1, 0]]"] ;
69 -> 73 ;
74 [label="gini = 0.0\nsamples = 2\nvalue = [[2, 0]\n[2, 0]\n[2, 0]]"] ;
68 -> 74 ;
75 [label="gini = 0.0\nsamples = 5\nvalue = [[5, 0]\n[5, 0]\n[5, 0]]"] ;
67 -> 75 ;
76 [label="X[4] <= 0.5\ngini = 0.02\nsamples = 64\nvalue = [[64, 0]\n[62, 2]\n[64, 0]]"] ;
2 -> 76 ;
77 [label="gini = 0.0\nsamples = 32\nvalue = [[32, 0]\n[32, 0]\n[32, 0]]"] ;
76 -> 77 ;
78 [label="X[9] <= 0.5\ngini = 0.039\nsamples = 32\nvalue = [[32, 0]\n[30, 2]\n[32, 0]]"] ;
76 -> 78 ;
79 [label="gini = 0.0\nsamples = 16\nvalue = [[16, 0]\n[16, 0]\n[16, 0]]"] ;
78 -> 79 ;
80 [label="X[8] <= 0.5\ngini = 0.073\nsamples = 16\nvalue = [[16, 0]\n[14, 2]\n[16, 0]]"] ;
78 -> 80 ;
81 [label="gini = 0.0\nsamples = 8\nvalue = [[8, 0]\n[8, 0]\n[8, 0]]"] ;
80 -> 81 ;
82 [label="X[2] <= 0.5\ngini = 0.125\nsamples = 8\nvalue = [[8, 0]\n[6, 2]\n[8, 0]]"] ;
80 -> 82 ;
83 [label="X[7] <= 0.5\ngini = 0.167\nsamples = 4\nvalue = [[4, 0]\n[2, 2]\n[4, 0]]"] ;
82 -> 83 ;
84 [label="X[6] <= 0.5\ngini = 0.167\nsamples = 2\nvalue = [[2, 0]\n[1, 1]\n[2, 0]]"] ;
83 -> 84 ;
85 [label="gini = 0.0\nsamples = 1\nvalue = [[1, 0]\n[0, 1]\n[1, 0]]"] ;
84 -> 85 ;
86 [label="gini = 0.0\nsamples = 1\nvalue = [[1, 0]\n[1, 0]\n[1, 0]]"] ;
84 -> 86 ;
87 [label="X[6] <= 0.5\ngini = 0.167\nsamples = 2\nvalue = [[2, 0]\n[1, 1]\n[2, 0]]"] ;
83 -> 87 ;
88 [label="gini = 0.0\nsamples = 1\nvalue = [[1, 0]\n[1, 0]\n[1, 0]]"] ;
87 -> 88 ;
89 [label="gini = 0.0\nsamples = 1\nvalue = [[1, 0]\n[0, 1]\n[1, 0]]"] ;
87 -> 89 ;
90 [label="gini = 0.0\nsamples = 4\nvalue = [[4, 0]\n[4, 0]\n[4, 0]]"] ;
82 -> 90 ;
91 [label="X[7] <= 0.5\ngini = 0.027\nsamples = 144\nvalue = [[143, 1]\n[139, 5]\n[144, 0]]"] ;
1 -> 91 ;
92 [label="X[3] <= 0.5\ngini = 0.009\nsamples = 72\nvalue = [[71, 1]\n[72, 0]\n[72, 0]]"] ;
91 -> 92 ;
93 [label="gini = 0.0\nsamples = 40\nvalue = [[40, 0]\n[40, 0]\n[40, 0]]"] ;
92 -> 93 ;
94 [label="X[9] <= 0.5\ngini = 0.02\nsamples = 32\nvalue = [[31, 1]\n[32, 0]\n[32, 0]]"] ;
92 -> 94 ;
95 [label="gini = 0.0\nsamples = 16\nvalue = [[16, 0]\n[16, 0]\n[16, 0]]"] ;
94 -> 95 ;
96 [label="X[4] <= 0.5\ngini = 0.039\nsamples = 16\nvalue = [[15, 1]\n[16, 0]\n[16, 0]]"] ;
94 -> 96 ;
97 [label="X[8] <= 0.5\ngini = 0.073\nsamples = 8\nvalue = [[7, 1]\n[8, 0]\n[8, 0]]"] ;
96 -> 97 ;
98 [label="gini = 0.0\nsamples = 4\nvalue = [[4, 0]\n[4, 0]\n[4, 0]]"] ;
97 -> 98 ;
99 [label="X[2] <= 0.5\ngini = 0.125\nsamples = 4\nvalue = [[3, 1]\n[4, 0]\n[4, 0]]"] ;
97 -> 99 ;
100 [label="X[6] <= 0.5\ngini = 0.167\nsamples = 2\nvalue = [[1, 1]\n[2, 0]\n[2, 0]]"] ;
99 -> 100 ;
101 [label="gini = 0.0\nsamples = 1\nvalue = [[0, 1]\n[1, 0]\n[1, 0]]"] ;
100 -> 101 ;
102 [label="gini = 0.0\nsamples = 1\nvalue = [[1, 0]\n[1, 0]\n[1, 0]]"] ;
100 -> 102 ;
103 [label="gini = 0.0\nsamples = 2\nvalue = [[2, 0]\n[2, 0]\n[2, 0]]"] ;
99 -> 103 ;
104 [label="gini = 0.0\nsamples = 8\nvalue = [[8, 0]\n[8, 0]\n[8, 0]]"] ;
96 -> 104 ;
105 [label="X[3] <= 0.5\ngini = 0.043\nsamples = 72\nvalue = [[72, 0]\n[67, 5]\n[72, 0]]"] ;
91 -> 105 ;
106 [label="X[2] <= 0.5\ngini = 0.016\nsamples = 40\nvalue = [[40, 0]\n[39, 1]\n[40, 0]]"] ;
105 -> 106 ;
107 [label="gini = 0.0\nsamples = 24\nvalue = [[24, 0]\n[24, 0]\n[24, 0]]"] ;
106 -> 107 ;
108 [label="X[8] <= 0.5\ngini = 0.039\nsamples = 16\nvalue = [[16, 0]\n[15, 1]\n[16, 0]]"] ;
106 -> 108 ;
109 [label="gini = 0.0\nsamples = 8\nvalue = [[8, 0]\n[8, 0]\n[8, 0]]"] ;
108 -> 109 ;
110 [label="X[6] <= 0.5\ngini = 0.073\nsamples = 8\nvalue = [[8, 0]\n[7, 1]\n[8, 0]]"] ;
108 -> 110 ;
111 [label="X[9] <= 0.5\ngini = 0.125\nsamples = 4\nvalue = [[4, 0]\n[3, 1]\n[4, 0]]"] ;
110 -> 111 ;
112 [label="X[4] <= 0.5\ngini = 0.167\nsamples = 2\nvalue = [[2, 0]\n[1, 1]\n[2, 0]]"] ;
111 -> 112 ;
113 [label="gini = 0.0\nsamples = 1\nvalue = [[1, 0]\n[1, 0]\n[1, 0]]"] ;
112 -> 113 ;
114 [label="gini = 0.0\nsamples = 1\nvalue = [[1, 0]\n[0, 1]\n[1, 0]]"] ;
112 -> 114 ;
115 [label="gini = 0.0\nsamples = 2\nvalue = [[2, 0]\n[2, 0]\n[2, 0]]"] ;
111 -> 115 ;
116 [label="gini = 0.0\nsamples = 4\nvalue = [[4, 0]\n[4, 0]\n[4, 0]]"] ;
110 -> 116 ;
117 [label="X[6] <= 0.5\ngini = 0.073\nsamples = 32\nvalue = [[32, 0]\n[28, 4]\n[32, 0]]"] ;
105 -> 117 ;
118 [label="gini = 0.0\nsamples = 16\nvalue = [[16, 0]\n[16, 0]\n[16, 0]]"] ;
117 -> 118 ;
119 [label="X[4] <= 0.5\ngini = 0.125\nsamples = 16\nvalue = [[16, 0]\n[12, 4]\n[16, 0]]"] ;
117 -> 119 ;
120 [label="X[2] <= 0.5\ngini = 0.156\nsamples = 8\nvalue = [[8, 0]\n[5, 3]\n[8, 0]]"] ;
119 -> 120 ;
121 [label="X[9] <= 0.5\ngini = 0.167\nsamples = 4\nvalue = [[4, 0]\n[2, 2]\n[4, 0]]"] ;
120 -> 121 ;
122 [label="X[8] <= 0.5\ngini = 0.167\nsamples = 2\nvalue = [[2, 0]\n[1, 1]\n[2, 0]]"] ;
121 -> 122 ;
123 [label="gini = 0.0\nsamples = 1\nvalue = [[1, 0]\n[1, 0]\n[1, 0]]"] ;
122 -> 123 ;
124 [label="gini = 0.0\nsamples = 1\nvalue = [[1, 0]\n[0, 1]\n[1, 0]]"] ;
122 -> 124 ;
125 [label="X[8] <= 0.5\ngini = 0.167\nsamples = 2\nvalue = [[2, 0]\n[1, 1]\n[2, 0]]"] ;
121 -> 125 ;
126 [label="gini = 0.0\nsamples = 1\nvalue = [[1, 0]\n[0, 1]\n[1, 0]]"] ;
125 -> 126 ;
127 [label="gini = 0.0\nsamples = 1\nvalue = [[1, 0]\n[1, 0]\n[1, 0]]"] ;
125 -> 127 ;
128 [label="X[9] <= 0.5\ngini = 0.125\nsamples = 4\nvalue = [[4, 0]\n[3, 1]\n[4, 0]]"] ;
120 -> 128 ;
129 [label="gini = 0.0\nsamples = 2\nvalue = [[2, 0]\n[2, 0]\n[2, 0]]"] ;
128 -> 129 ;
130 [label="X[8] <= 0.5\ngini = 0.167\nsamples = 2\nvalue = [[2, 0]\n[1, 1]\n[2, 0]]"] ;
128 -> 130 ;
131 [label="gini = 0.0\nsamples = 1\nvalue = [[1, 0]\n[0, 1]\n[1, 0]]"] ;
130 -> 131 ;
132 [label="gini = 0.0\nsamples = 1\nvalue = [[1, 0]\n[1, 0]\n[1, 0]]"] ;
130 -> 132 ;
133 [label="X[9] <= 0.5\ngini = 0.073\nsamples = 8\nvalue = [[8, 0]\n[7, 1]\n[8, 0]]"] ;
119 -> 133 ;
134 [label="gini = 0.0\nsamples = 4\nvalue = [[4, 0]\n[4, 0]\n[4, 0]]"] ;
133 -> 134 ;
135 [label="X[2] <= 0.5\ngini = 0.125\nsamples = 4\nvalue = [[4, 0]\n[3, 1]\n[4, 0]]"] ;
133 -> 135 ;
136 [label="gini = 0.0\nsamples = 2\nvalue = [[2, 0]\n[2, 0]\n[2, 0]]"] ;
135 -> 136 ;
137 [label="X[8] <= 0.5\ngini = 0.167\nsamples = 2\nvalue = [[2, 0]\n[1, 1]\n[2, 0]]"] ;
135 -> 137 ;
138 [label="gini = 0.0\nsamples = 1\nvalue = [[1, 0]\n[1, 0]\n[1, 0]]"] ;
137 -> 138 ;
139 [label="gini = 0.0\nsamples = 1\nvalue = [[1, 0]\n[0, 1]\n[1, 0]]"] ;
137 -> 139 ;
140 [label="X[7] <= 0.5\ngini = 0.025\nsamples = 256\nvalue = [[256, 0]\n[249, 7]\n[253, 3]]"] ;
0 -> 140 [labeldistance=2.5, labelangle=-45, headlabel="False"] ;
141 [label="X[4] <= 0.5\ngini = 0.005\nsamples = 128\nvalue = [[128, 0]\n[127, 1]\n[128, 0]]"] ;
140 -> 141 ;
142 [label="gini = 0.0\nsamples = 64\nvalue = [[64, 0]\n[64, 0]\n[64, 0]]"] ;
141 -> 142 ;
143 [label="X[8] <= 0.5\ngini = 0.01\nsamples = 64\nvalue = [[64, 0]\n[63, 1]\n[64, 0]]"] ;
141 -> 143 ;
144 [label="X[3] <= 0.5\ngini = 0.02\nsamples = 32\nvalue = [[32, 0]\n[31, 1]\n[32, 0]]"] ;
143 -> 144 ;
145 [label="gini = 0.0\nsamples = 16\nvalue = [[16, 0]\n[16, 0]\n[16, 0]]"] ;
144 -> 145 ;
146 [label="X[6] <= 0.5\ngini = 0.039\nsamples = 16\nvalue = [[16, 0]\n[15, 1]\n[16, 0]]"] ;
144 -> 146 ;
147 [label="X[2] <= 0.5\ngini = 0.073\nsamples = 8\nvalue = [[8, 0]\n[7, 1]\n[8, 0]]"] ;
146 -> 147 ;
148 [label="gini = 0.0\nsamples = 4\nvalue = [[4, 0]\n[4, 0]\n[4, 0]]"] ;
147 -> 148 ;
149 [label="X[5] <= 0.5\ngini = 0.125\nsamples = 4\nvalue = [[4, 0]\n[3, 1]\n[4, 0]]"] ;
147 -> 149 ;
150 [label="X[9] <= 0.5\ngini = 0.167\nsamples = 2\nvalue = [[2, 0]\n[1, 1]\n[2, 0]]"] ;
149 -> 150 ;
151 [label="gini = 0.0\nsamples = 1\nvalue = [[1, 0]\n[1, 0]\n[1, 0]]"] ;
150 -> 151 ;
152 [label="gini = 0.0\nsamples = 1\nvalue = [[1, 0]\n[0, 1]\n[1, 0]]"] ;
150 -> 152 ;
153 [label="gini = 0.0\nsamples = 2\nvalue = [[2, 0]\n[2, 0]\n[2, 0]]"] ;
149 -> 153 ;
154 [label="gini = 0.0\nsamples = 8\nvalue = [[8, 0]\n[8, 0]\n[8, 0]]"] ;
146 -> 154 ;
155 [label="gini = 0.0\nsamples = 32\nvalue = [[32, 0]\n[32, 0]\n[32, 0]]"] ;
143 -> 155 ;
156 [label="X[4] <= 0.5\ngini = 0.045\nsamples = 128\nvalue = [[128, 0]\n[122, 6]\n[125, 3]]"] ;
140 -> 156 ;
157 [label="X[2] <= 0.5\ngini = 0.039\nsamples = 64\nvalue = [[64, 0]\n[60, 4]\n[64, 0]]"] ;
156 -> 157 ;
158 [label="X[3] <= 0.5\ngini = 0.02\nsamples = 32\nvalue = [[32, 0]\n[31, 1]\n[32, 0]]"] ;
157 -> 158 ;
159 [label="gini = 0.0\nsamples = 16\nvalue = [[16, 0]\n[16, 0]\n[16, 0]]"] ;
158 -> 159 ;
160 [label="X[5] <= 0.5\ngini = 0.039\nsamples = 16\nvalue = [[16, 0]\n[15, 1]\n[16, 0]]"] ;
158 -> 160 ;
161 [label="gini = 0.0\nsamples = 8\nvalue = [[8, 0]\n[8, 0]\n[8, 0]]"] ;
160 -> 161 ;
162 [label="X[6] <= 0.5\ngini = 0.073\nsamples = 8\nvalue = [[8, 0]\n[7, 1]\n[8, 0]]"] ;
160 -> 162 ;
163 [label="gini = 0.0\nsamples = 4\nvalue = [[4, 0]\n[4, 0]\n[4, 0]]"] ;
162 -> 163 ;
164 [label="X[8] <= 0.5\ngini = 0.125\nsamples = 4\nvalue = [[4, 0]\n[3, 1]\n[4, 0]]"] ;
162 -> 164 ;
165 [label="gini = 0.0\nsamples = 2\nvalue = [[2, 0]\n[2, 0]\n[2, 0]]"] ;
164 -> 165 ;
166 [label="X[9] <= 0.5\ngini = 0.167\nsamples = 2\nvalue = [[2, 0]\n[1, 1]\n[2, 0]]"] ;
164 -> 166 ;
167 [label="gini = 0.0\nsamples = 1\nvalue = [[1, 0]\n[1, 0]\n[1, 0]]"] ;
166 -> 167 ;
168 [label="gini = 0.0\nsamples = 1\nvalue = [[1, 0]\n[0, 1]\n[1, 0]]"] ;
166 -> 168 ;
169 [label="X[3] <= 0.5\ngini = 0.057\nsamples = 32\nvalue = [[32, 0]\n[29, 3]\n[32, 0]]"] ;
157 -> 169 ;
170 [label="X[5] <= 0.5\ngini = 0.073\nsamples = 16\nvalue = [[16, 0]\n[14, 2]\n[16, 0]]"] ;
169 -> 170 ;
171 [label="X[6] <= 0.5\ngini = 0.125\nsamples = 8\nvalue = [[8, 0]\n[6, 2]\n[8, 0]]"] ;
170 -> 171 ;
172 [label="X[8] <= 0.5\ngini = 0.167\nsamples = 4\nvalue = [[4, 0]\n[2, 2]\n[4, 0]]"] ;
171 -> 172 ;
173 [label="gini = 0.0\nsamples = 2\nvalue = [[2, 0]\n[2, 0]\n[2, 0]]"] ;
172 -> 173 ;
174 [label="gini = 0.0\nsamples = 2\nvalue = [[2, 0]\n[0, 2]\n[2, 0]]"] ;
172 -> 174 ;
175 [label="gini = 0.0\nsamples = 4\nvalue = [[4, 0]\n[4, 0]\n[4, 0]]"] ;
171 -> 175 ;
176 [label="gini = 0.0\nsamples = 8\nvalue = [[8, 0]\n[8, 0]\n[8, 0]]"] ;
170 -> 176 ;
177 [label="X[8] <= 0.5\ngini = 0.039\nsamples = 16\nvalue = [[16, 0]\n[15, 1]\n[16, 0]]"] ;
169 -> 177 ;
178 [label="X[6] <= 0.5\ngini = 0.073\nsamples = 8\nvalue = [[8, 0]\n[7, 1]\n[8, 0]]"] ;
177 -> 178 ;
179 [label="gini = 0.0\nsamples = 4\nvalue = [[4, 0]\n[4, 0]\n[4, 0]]"] ;
178 -> 179 ;
180 [label="X[5] <= 0.5\ngini = 0.125\nsamples = 4\nvalue = [[4, 0]\n[3, 1]\n[4, 0]]"] ;
178 -> 180 ;
181 [label="gini = 0.0\nsamples = 2\nvalue = [[2, 0]\n[2, 0]\n[2, 0]]"] ;
180 -> 181 ;
182 [label="X[9] <= 0.5\ngini = 0.167\nsamples = 2\nvalue = [[2, 0]\n[1, 1]\n[2, 0]]"] ;
180 -> 182 ;
183 [label="gini = 0.0\nsamples = 1\nvalue = [[1, 0]\n[1, 0]\n[1, 0]]"] ;
182 -> 183 ;
184 [label="gini = 0.0\nsamples = 1\nvalue = [[1, 0]\n[0, 1]\n[1, 0]]"] ;
182 -> 184 ;
185 [label="gini = 0.0\nsamples = 8\nvalue = [[8, 0]\n[8, 0]\n[8, 0]]"] ;
177 -> 185 ;
186 [label="X[8] <= 0.5\ngini = 0.05\nsamples = 64\nvalue = [[64, 0]\n[62, 2]\n[61, 3]]"] ;
156 -> 186 ;
187 [label="X[9] <= 0.5\ngini = 0.077\nsamples = 32\nvalue = [[32, 0]\n[31, 1]\n[29, 3]]"] ;
186 -> 187 ;
188 [label="X[2] <= 0.5\ngini = 0.039\nsamples = 16\nvalue = [[16, 0]\n[16, 0]\n[15, 1]]"] ;
187 -> 188 ;
189 [label="X[3] <= 0.5\ngini = 0.073\nsamples = 8\nvalue = [[8, 0]\n[8, 0]\n[7, 1]]"] ;
188 -> 189 ;
190 [label="gini = 0.0\nsamples = 4\nvalue = [[4, 0]\n[4, 0]\n[4, 0]]"] ;
189 -> 190 ;
191 [label="X[6] <= 0.5\ngini = 0.125\nsamples = 4\nvalue = [[4, 0]\n[4, 0]\n[3, 1]]"] ;
189 -> 191 ;
192 [label="gini = 0.0\nsamples = 2\nvalue = [[2, 0]\n[2, 0]\n[2, 0]]"] ;
191 -> 192 ;
193 [label="X[5] <= 0.5\ngini = 0.167\nsamples = 2\nvalue = [[2, 0]\n[2, 0]\n[1, 1]]"] ;
191 -> 193 ;
194 [label="gini = 0.0\nsamples = 1\nvalue = [[1, 0]\n[1, 0]\n[0, 1]]"] ;
193 -> 194 ;
195 [label="gini = 0.0\nsamples = 1\nvalue = [[1, 0]\n[1, 0]\n[1, 0]]"] ;
193 -> 195 ;
196 [label="gini = 0.0\nsamples = 8\nvalue = [[8, 0]\n[8, 0]\n[8, 0]]"] ;
188 -> 196 ;
197 [label="X[6] <= 0.5\ngini = 0.112\nsamples = 16\nvalue = [[16, 0]\n[15, 1]\n[14, 2]]"] ;
187 -> 197 ;
198 [label="X[3] <= 0.5\ngini = 0.125\nsamples = 8\nvalue = [[8, 0]\n[8, 0]\n[6, 2]]"] ;
197 -> 198 ;
199 [label="X[2] <= 0.5\ngini = 0.125\nsamples = 4\nvalue = [[4, 0]\n[4, 0]\n[3, 1]]"] ;
198 -> 199 ;
200 [label="gini = 0.0\nsamples = 2\nvalue = [[2, 0]\n[2, 0]\n[2, 0]]"] ;
199 -> 200 ;
201 [label="X[5] <= 0.5\ngini = 0.167\nsamples = 2\nvalue = [[2, 0]\n[2, 0]\n[1, 1]]"] ;
199 -> 201 ;
202 [label="gini = 0.0\nsamples = 1\nvalue = [[1, 0]\n[1, 0]\n[0, 1]]"] ;
201 -> 202 ;
203 [label="gini = 0.0\nsamples = 1\nvalue = [[1, 0]\n[1, 0]\n[1, 0]]"] ;
201 -> 203 ;
204 [label="X[5] <= 0.5\ngini = 0.125\nsamples = 4\nvalue = [[4, 0]\n[4, 0]\n[3, 1]]"] ;
198 -> 204 ;
205 [label="gini = 0.0\nsamples = 2\nvalue = [[2, 0]\n[2, 0]\n[2, 0]]"] ;
204 -> 205 ;
206 [label="X[2] <= 0.5\ngini = 0.167\nsamples = 2\nvalue = [[2, 0]\n[2, 0]\n[1, 1]]"] ;
204 -> 206 ;
207 [label="gini = 0.0\nsamples = 1\nvalue = [[1, 0]\n[1, 0]\n[0, 1]]"] ;
206 -> 207 ;
208 [label="gini = 0.0\nsamples = 1\nvalue = [[1, 0]\n[1, 0]\n[1, 0]]"] ;
206 -> 208 ;
209 [label="X[2] <= 0.5\ngini = 0.073\nsamples = 8\nvalue = [[8, 0]\n[7, 1]\n[8, 0]]"] ;
197 -> 209 ;
210 [label="X[5] <= 0.5\ngini = 0.125\nsamples = 4\nvalue = [[4, 0]\n[3, 1]\n[4, 0]]"] ;
209 -> 210 ;
211 [label="X[3] <= 0.5\ngini = 0.167\nsamples = 2\nvalue = [[2, 0]\n[1, 1]\n[2, 0]]"] ;
210 -> 211 ;
212 [label="gini = 0.0\nsamples = 1\nvalue = [[1, 0]\n[0, 1]\n[1, 0]]"] ;
211 -> 212 ;
213 [label="gini = 0.0\nsamples = 1\nvalue = [[1, 0]\n[1, 0]\n[1, 0]]"] ;
211 -> 213 ;
214 [label="gini = 0.0\nsamples = 2\nvalue = [[2, 0]\n[2, 0]\n[2, 0]]"] ;
210 -> 214 ;
215 [label="gini = 0.0\nsamples = 4\nvalue = [[4, 0]\n[4, 0]\n[4, 0]]"] ;
209 -> 215 ;
216 [label="X[6] <= 0.5\ngini = 0.02\nsamples = 32\nvalue = [[32, 0]\n[31, 1]\n[32, 0]]"] ;
186 -> 216 ;
217 [label="gini = 0.0\nsamples = 16\nvalue = [[16, 0]\n[16, 0]\n[16, 0]]"] ;
216 -> 217 ;
218 [label="X[5] <= 0.5\ngini = 0.039\nsamples = 16\nvalue = [[16, 0]\n[15, 1]\n[16, 0]]"] ;
216 -> 218 ;
219 [label="X[3] <= 0.5\ngini = 0.073\nsamples = 8\nvalue = [[8, 0]\n[7, 1]\n[8, 0]]"] ;
218 -> 219 ;
220 [label="X[2] <= 0.5\ngini = 0.125\nsamples = 4\nvalue = [[4, 0]\n[3, 1]\n[4, 0]]"] ;
219 -> 220 ;
221 [label="X[9] <= 0.5\ngini = 0.167\nsamples = 2\nvalue = [[2, 0]\n[1, 1]\n[2, 0]]"] ;
220 -> 221 ;
222 [label="gini = 0.0\nsamples = 1\nvalue = [[1, 0]\n[0, 1]\n[1, 0]]"] ;
221 -> 222 ;
223 [label="gini = 0.0\nsamples = 1\nvalue = [[1, 0]\n[1, 0]\n[1, 0]]"] ;
221 -> 223 ;
224 [label="gini = 0.0\nsamples = 2\nvalue = [[2, 0]\n[2, 0]\n[2, 0]]"] ;
220 -> 224 ;
225 [label="gini = 0.0\nsamples = 4\nvalue = [[4, 0]\n[4, 0]\n[4, 0]]"] ;
219 -> 225 ;
226 [label="gini = 0.0\nsamples = 8\nvalue = [[8, 0]\n[8, 0]\n[8, 0]]"] ;
218 -> 226 ;
}
